,0,1,2,3,4,5,6,7,8,9,10,11,12,13,14,15,16,17,18,19,20,21,22,23,24,25,26,27,28,29,30,31,32,33,34,35,36,37,38,39,40,41,42,43,44,45,46,47,48,49
Anfu_Zhou,0.1696037,0.05032137,0.11792309,0.026963536,0.022707524,0.026009284,-0.016909508,-0.1862211,0.09159446,0.10384841,0.09155329,0.053550124,-0.03562467,0.071478926,-0.0009954572,0.088873595,-0.02247894,0.021213677,-0.043442454,-0.19502607,0.101616085,-0.07236502,0.028385025,0.06111934,0.08914122,-0.44962928,-0.13045329,-0.021068124,0.15418725,-0.029258369,1.3629146,0.013058746,-0.10029802,-0.22797297,-0.010181588,0.014241457,0.051787246,0.034008723,-0.08236361,-0.022541588,0.072767034,-0.065105736,-0.0015146611,0.13836227,-0.08941458,-0.035877958,0.16469316,0.10667202,0.0376682,0.0801827
Hongman_Wang,0.2023643,0.07172942,0.13877565,0.023030767,0.012066187,0.028219935,-0.035224922,-0.19761327,0.07782917,0.036900014,0.12926349,-0.0019043355,-0.07809371,0.051513143,0.021549102,0.112454824,-0.037473626,0.029997548,-0.018449726,-0.22192617,0.046890944,-0.118732825,-0.042413484,0.060952086,0.06887464,-0.45484534,-0.13272892,0.0049166777,0.14588346,0.040983,1.353739,-0.047904976,-0.15663786,-0.21326108,0.04194196,-0.0028553035,0.07005392,0.10783104,-0.029270215,0.00029676408,0.06560646,-0.08239414,0.035215847,0.13610661,-0.09142877,-0.04991917,0.18375127,0.10593965,0.09463351,0.044992473
Xiangling_Fu,0.14293315,0.045650516,0.031905685,0.008127956,0.040893167,0.079366565,-0.008422323,-0.12903693,0.047216874,0.07946416,0.092697784,0.04233347,-0.020223875,0.04380309,-0.0038897838,0.057223648,-0.02449174,-0.015351479,-0.004798314,-0.13055113,0.054931384,-0.07548235,0.031378757,0.05242528,0.046651825,-0.3542739,-0.1389305,-0.041900087,0.06734047,-0.026137771,1.0497618,-0.022765953,-0.0916508,-0.18768102,0.020240134,-0.01331464,0.045948125,0.052967563,-0.034212183,-0.016835827,0.039683063,-0.09202212,0.0055675143,0.13329358,-0.047230843,-0.028841231,0.12147254,0.11602829,0.049046714,0.04725194
Yang_Liu_0024,0.094698355,0.08689196,0.13629986,0.09761656,-0.0133887995,0.025353054,0.0086233355,-0.16322333,0.08984048,0.04240638,0.11807292,0.042544413,-0.016114485,0.066584826,-0.057291623,0.048000313,-0.08057626,0.04290258,-0.043425728,-0.10745649,0.078038834,-0.11278629,0.037417002,0.0931123,0.021838645,-0.32769048,-0.059926413,-0.027998822,0.10119428,-0.02397128,1.0754547,0.017093923,-0.1020792,-0.14216729,-0.033615246,-0.005322948,0.09033952,0.0055238754,-0.07922434,0.008900558,0.14310408,-0.09060984,-0.032533213,0.11466421,-0.13777503,-0.038480055,0.10302866,0.06938081,0.065691255,0.057741925
Pengfei_Wang_0009,0.15194803,0.030889811,0.0092328,-0.035257425,0.12735546,0.070375286,-0.0043838783,-0.1705125,0.05589464,0.085609965,0.089330055,0.08618277,-0.013529528,0.054024722,0.08569846,0.09475159,0.017057026,-0.042228393,0.04288584,-0.26368815,0.08194462,-0.10932728,0.06364241,0.07814033,0.070119396,-0.47945642,-0.20347631,-0.06947837,0.11667243,-0.026300633,1.4157206,-0.0014416884,-0.15235099,-0.27187684,0.060599778,-0.005303728,0.067896016,0.108451426,-0.0812024,-0.07591704,0.026507197,-0.11900108,0.040438723,0.19034903,-0.04686781,-0.0141877,0.161132,0.19054176,0.06566192,0.12561393
Si-Ya_Xu,0.19501407,0.016973382,0.123706244,0.06262858,-0.0026833275,0.043590367,0.024786664,-0.1676977,0.104779445,0.07910511,0.102773435,0.04570137,-0.061217315,0.061845385,-0.020454522,0.08663945,0.0058014668,0.0316499,-0.0006790544,-0.13626134,0.08506556,-0.13894449,0.0003169972,0.090955496,0.017218644,-0.337333,-0.10217766,-0.02557994,0.14952147,-0.00518908,1.1667143,-0.0071602054,-0.10530893,-0.15104258,-0.005197163,0.015658407,0.041140754,0.02927208,-0.028711965,-0.0015025403,0.07427299,-0.08828162,-0.018869033,0.13169406,-0.122322544,-0.06840984,0.15796892,0.10735933,0.07386466,0.08370291
Wenjing_Li_0001,0.17368253,0.03497601,0.12410454,0.047392644,-0.0055964133,0.025116708,-0.0030545013,-0.17804442,0.10331189,0.086563535,0.12647788,0.042578507,-0.046458714,0.063727066,-0.033970233,0.087124474,-0.015117784,0.054122113,-0.02334385,-0.14443806,0.08457847,-0.119108215,0.007944687,0.087157,0.025473682,-0.38327712,-0.10315789,-0.015504625,0.15712672,0.009934768,1.2364655,0.013447893,-0.10461499,-0.18154629,-0.005709737,0.011507748,0.032036807,0.028407082,-0.04080865,0.0036500504,0.07190782,-0.08456441,-0.011580221,0.11952228,-0.1047008,-0.061348174,0.14500567,0.10399447,0.07755758,0.08159336
Chen_Liu_0011,0.19531558,0.020092743,0.12979844,0.040057845,0.03269688,0.029062893,-0.062561795,-0.26138377,0.12333608,0.09197139,0.15450652,0.066304095,-0.047103353,0.06501675,-0.006089827,0.095454894,0.0045594773,0.025284443,0.0003517469,-0.27317962,0.08056688,-0.16937126,0.010171883,0.055292446,0.08377782,-0.5282908,-0.17198065,-0.014637391,0.17692688,-0.01597296,1.5875113,-0.055938788,-0.1779886,-0.27921844,-0.016283335,0.040760778,0.018100409,0.09933279,-0.0130215855,-0.015700843,0.09571704,-0.10286778,-0.013848188,0.1760796,-0.06093064,-0.06842386,0.22088869,0.13830476,0.098896705,0.052373115
Xiaomin_Zhu_0002,0.1466355,0.03484778,0.06692402,0.038297497,0.006721434,0.012802424,-0.0015369966,-0.14837381,0.08175101,0.06861199,0.08322332,0.057565738,-0.034556616,0.04308993,0.005977593,0.066285804,-0.023487942,0.003069344,0.011917331,-0.15707518,0.07800638,-0.12313564,0.0062165386,0.08230579,0.046557378,-0.34388304,-0.082438394,-0.012698419,0.11487681,-0.004387269,1.095583,-0.020744907,-0.11781327,-0.14517288,0.0007788348,-0.0025103292,0.049266577,0.032885145,-0.040604513,0.00071618817,0.06912921,-0.07957858,-0.02175211,0.14268424,-0.09245148,-0.048311587,0.1481567,0.1004972,0.0803789,0.05018359
Yawen_Wang,0.14653002,0.015292252,0.048717458,0.016497917,0.049516995,0.051584926,0.010841453,-0.13963436,0.04910179,0.0751498,0.103278644,0.048279908,-0.040996462,0.049573284,0.009056079,0.052444775,-0.0011715129,0.010993505,-0.03156644,-0.14800921,0.02660162,-0.0773468,0.0302646,0.028767167,0.06305311,-0.33341888,-0.12710375,-0.029319778,0.087881945,-0.020586038,1.0388563,-0.016120004,-0.11049684,-0.18506476,0.013396803,0.01219335,0.057268344,0.040666867,-0.03470983,-0.019845488,0.040861193,-0.081310615,-0.0062350463,0.102141015,-0.04790486,-0.029305063,0.14031726,0.115098275,0.05127383,0.058928408
Pei_Zhang_0003,0.23678409,0.037144568,0.14287987,0.033420596,0.0066071255,0.024322743,-0.022430638,-0.1830923,0.12098298,0.100781776,0.105269305,0.07108809,-0.0792074,0.06078273,-0.016817205,0.10743004,-0.0027644236,-0.01367669,-0.049604572,-0.20091541,0.10037105,-0.15388155,0.05865812,0.104460284,0.055482045,-0.54522204,-0.13756503,-0.014551147,0.19330783,-0.02882937,1.5799537,0.006389539,-0.14429374,-0.2501146,0.015349669,-0.012418497,0.0436844,0.038116768,-0.05670645,0.012618467,0.064953506,-0.09545955,0.012376821,0.16630384,-0.11720993,-0.016953237,0.17116535,0.15197578,0.108471744,0.050170153
Jianfeng_Guan,0.15343016,0.03673834,0.09623374,0.06478209,-0.0008321044,0.008927605,-0.017396627,-0.15246382,0.09556764,0.10380804,0.09589385,0.07577084,-0.0459611,0.05108585,0.0003152234,0.07248296,-0.013447327,0.013671788,0.006526475,-0.15199703,0.09446539,-0.11034078,0.026712062,0.08024105,0.037742577,-0.36514995,-0.09476926,-0.03343374,0.11215756,-0.00104863,1.1467769,0.01803566,-0.090879,-0.17422333,-0.03468973,-0.016073957,0.027596116,0.029120984,-0.057443716,-0.022762544,0.09543122,-0.08434713,-0.031262066,0.13431616,-0.079869576,-0.027014626,0.104025386,0.12475367,0.056832567,0.07727043
Qi_Qi_0001,0.14479527,0.081938215,0.021010859,-0.008817518,0.07507862,0.06108863,0.0098536145,-0.16112961,0.048667192,0.05628202,0.07882459,0.037182014,-0.05144269,0.02571573,0.025856808,0.051529717,0.007680574,0.051374614,0.018787932,-0.1509355,0.023311056,-0.0331874,0.0075607346,0.07285415,0.09926936,-0.35015613,-0.19891901,-0.04424463,0.070900485,-0.04127757,1.0326757,-0.03788776,-0.14040998,-0.22667503,0.051934123,-0.012272166,0.07102809,0.06462869,-0.053198047,-0.023099052,0.030584324,-0.13624272,0.03467586,0.111053705,-0.05371227,-0.01042729,0.15210764,0.13037674,0.051773358,0.10192092
Qiwei_Shen,0.20061879,-0.106583215,0.025778372,-0.027449846,-0.019196626,0.12301424,0.046276547,-0.2916436,0.12693141,0.1194366,0.20558667,0.17775963,-0.069758475,0.033726793,-0.009876741,0.18111601,0.056330174,0.054901592,0.03446155,-0.2621929,0.11251043,-0.14049518,-0.034888975,0.097687505,0.116863504,-0.3963283,-0.14516692,-0.12682062,0.15379186,-0.026450422,1.3861952,-0.045889385,-0.24777316,-0.25431067,0.07708676,0.043896697,0.15919791,0.09176316,-0.0953005,0.018501148,0.068240345,-0.0970814,-0.067702375,0.20180203,-0.1576942,-0.04601652,0.27350542,0.09872988,0.05634849,0.15625122
Chuan_Shi,0.064283825,0.09416646,0.023245044,-0.0666802,0.03809756,0.10064693,0.04672447,-0.25855705,0.06327776,0.11118092,0.28427234,0.10160973,-0.11237599,0.0087967105,-0.007977452,0.20547065,0.03757777,0.1547694,0.012134364,-0.15814416,0.01953891,-0.09092385,-0.05845288,0.084183134,0.07567791,-0.56322235,-0.31803295,-0.07568941,0.17404884,0.06250931,1.3154262,0.031917933,-0.1422576,-0.24037264,0.079864286,-0.041702453,0.116516784,0.074756995,-0.040864985,0.05543321,0.044925213,-0.14948875,0.029216852,0.12555231,0.03994794,-0.050497856,0.12371887,0.17439994,0.07497522,0.19164371
Yongping_Xiong,0.1468442,0.026280297,0.12315617,0.035484217,0.03884923,0.0048947544,-0.024902819,-0.14478016,0.08463556,0.05089399,0.08578329,0.036584117,-0.04306796,0.047254555,-0.012003164,0.08879162,-0.025208589,-0.011979619,-0.02113666,-0.12727945,0.078248605,-0.10898061,0.011522426,0.06973053,0.025763618,-0.37709495,-0.081381574,-0.026891889,0.11548108,-0.012966515,1.0865101,0.036757182,-0.09747575,-0.1709549,-0.009004631,-0.00878469,0.033432003,0.005905699,-0.060961965,-0.016713856,0.05897369,-0.068717755,-0.011706973,0.103088856,-0.061686616,-0.023288654,0.1152041,0.11941378,0.06671439,0.05124122
Haihong_E,0.15771204,0.034326605,0.057553872,0.003994465,0.07991956,0.054771595,-0.0015171841,-0.1723738,0.05853848,0.070807524,0.10688418,0.05680351,-0.03690001,0.049658604,0.028126623,0.07139871,-0.016990598,0.010718297,0.0016813243,-0.18083698,0.05959072,-0.10955306,0.039284218,0.068143606,0.067269824,-0.4044907,-0.14801605,-0.043475743,0.10946823,-0.020271163,1.2600152,-0.013533747,-0.12040296,-0.21545869,0.030455098,0.001977148,0.046817027,0.082924776,-0.032529254,-0.036419652,0.04437338,-0.10759278,-0.0010917564,0.14538234,-0.06974256,-0.033714667,0.18230069,0.14028084,0.061495245,0.09607315
Fanqin_Zhou,0.17720194,0.038455807,0.14258745,0.057254713,-0.0019418843,0.023147564,0.019596398,-0.1783751,0.114470296,0.09318806,0.13376531,0.041299187,-0.041079428,0.06763097,-0.04307385,0.085603625,-0.016995214,0.07422055,-0.028219275,-0.15215966,0.08514056,-0.13378163,0.0024962556,0.0890024,0.033428676,-0.35632116,-0.0899438,-0.016933756,0.15993574,0.02572101,1.2097561,0.025537068,-0.09767446,-0.16067119,-0.0022422615,0.0071210987,0.03808339,0.03292333,-0.032131363,0.0113646295,0.08059525,-0.08626002,-0.028884685,0.12389125,-0.11109137,-0.06513239,0.15653744,0.10052777,0.08208901,0.09282524
Shuzhuang_Zhang,0.16670081,0.04283684,0.07088887,0.05998566,-0.0033329413,0.02091914,-0.049304236,-0.16207705,0.12452662,0.0946876,0.08655121,0.082176685,-0.074680045,0.06217371,0.030108837,0.049257148,-0.0059149573,0.0069792992,-0.01736132,-0.21853012,0.091406085,-0.108940944,0.054865114,0.09883542,0.086943164,-0.46555817,-0.17405608,-0.015475139,0.15619732,-0.055888847,1.3395044,0.003390438,-0.116517514,-0.20944843,-0.016549319,-0.017261755,0.035204355,0.06799289,-0.06736064,0.005659257,0.08025207,-0.09107414,0.0032756508,0.1584164,-0.087860264,-0.050751284,0.14879344,0.13816813,0.07245708,0.09940028
Hongliang_Liang,0.0,0.0,0.0,0.0,0.0,0.0,0.0,0.0,0.0,0.0,0.0,0.0,0.0,0.0,0.0,0.0,0.0,0.0,0.0,0.0,0.0,0.0,0.0,0.0,0.0,0.0,0.0,0.0,0.0,0.0,0.0,0.0,0.0,0.0,0.0,0.0,0.0,0.0,0.0,0.0,0.0,0.0,0.0,0.0,0.0,0.0,0.0,0.0,0.0,0.0
Linmei_Hu,0.13457234,0.068078585,0.01264844,0.014401164,0.07446287,0.041375812,-0.0044757226,-0.1319605,0.04089738,0.048861567,0.06488458,0.03639903,-0.0075286785,0.04265562,0.059408262,0.056037214,-0.009427082,-0.00644565,0.028088227,-0.14099707,0.06811474,-0.065740764,0.060653303,0.09405136,0.087762415,-0.32992178,-0.15828016,-0.034144487,0.06328326,-0.02281909,0.99522334,-0.03328233,-0.10801727,-0.21117936,0.0027424167,0.001042661,0.0358524,0.061829396,-0.08151497,-0.018464264,0.052488223,-0.09302121,0.01656641,0.111335434,-0.021637172,-0.026335606,0.12565869,0.136398,0.053484764,0.062797554
Yanhua_Yu,0.12520589,0.013238416,0.029426651,0.022627924,0.092559986,0.072695285,0.040481154,-0.16423424,0.034559026,0.07206605,0.07894531,0.042423964,-0.042193163,0.030979395,0.06273269,0.046900835,0.0027097391,-0.009402116,-0.014636666,-0.17864992,0.0094161,-0.1338914,0.04260642,0.058860134,0.051390365,-0.3149185,-0.11524287,-0.007511902,0.10622799,0.021187022,0.99675614,-0.07049858,-0.117262125,-0.1282276,0.043782577,-0.012817543,0.032842424,0.08962337,-0.062265094,-0.0045997873,0.04418829,-0.051039543,-0.02399108,0.17409468,-0.10662363,-0.04145406,0.17581965,0.096627064,0.04354942,0.02734402
Yan_Shi_0002,0.12561807,0.043283172,0.08445817,0.042697668,-0.034091983,0.015185517,-0.022414826,-0.13629317,0.09406821,0.065792054,0.10973296,0.030422442,-0.053565416,0.05151726,-0.03973999,0.06268776,-0.024605665,0.034412995,-0.05252795,-0.13233542,0.110652156,-0.087072715,-0.013478339,0.041764334,0.024493294,-0.34211144,-0.09703915,-0.027171006,0.10353763,0.008763316,1.0671006,0.019565387,-0.072376244,-0.15983245,-0.0022487247,-0.038787168,0.04445665,0.0056098974,-0.06414651,0.006517172,0.04308613,-0.1054693,0.01337355,0.081962645,-0.092402555,-0.04720265,0.11048619,0.11398202,0.034311965,0.07448823
Haifeng_Sun,0.11422915,-0.0024888506,0.051160507,0.012348561,0.042408913,0.035080712,0.032528423,-0.11463499,0.04836285,0.024926506,0.08439207,0.034294352,-0.03748759,0.057732224,-0.033406723,0.05639232,-0.011880104,0.026308535,0.006217724,-0.12091323,0.036481574,-0.06504762,-0.0037646235,0.020266859,0.032068387,-0.22209026,-0.077301055,-0.008931761,0.06034525,-0.021100206,0.7438827,-0.021955865,-0.06154412,-0.13662189,-0.009208699,0.026630374,0.036527716,0.029758679,-0.016222993,0.0035750403,0.040351402,-0.06481883,-0.0064892555,0.07861516,-0.06377341,-0.0068152547,0.11299002,0.051686373,0.006407907,0.025729056
Yuhong_Li,0.07697833,0.017964799,0.032579076,0.025093833,0.012729261,0.01668258,-0.025588429,-0.068345934,0.021005655,0.0021464147,0.060795955,0.03397394,-0.047963064,0.010008179,0.0010120659,0.035185274,0.003949439,0.031617235,0.0041432506,-0.05588147,0.022161094,-0.035187382,-0.025938388,0.007604877,0.0025682258,-0.13136211,-0.026921107,-0.005974561,0.04074111,0.026008088,0.40753287,-0.0013500127,-0.035393864,-0.059290715,0.021387873,-0.0030242782,0.0095243165,0.030981429,-0.011766123,0.010439972,0.0016187675,-0.026831588,0.017913425,0.0051888074,-0.041645925,-0.00423416,0.016945004,0.046158165,0.024565425,0.03403679
Dong_Zhao_0001,0.16711694,0.028466519,0.020767467,-0.0040306128,0.13287619,0.08665523,0.053891473,-0.19159088,-0.012417438,0.10828133,0.09328582,0.03413965,-0.031823106,0.042250436,0.035534758,0.0942867,0.019532913,-0.028319214,-0.030037442,-0.24251859,0.047284108,-0.07717489,0.04236092,0.006567653,0.08078193,-0.3928962,-0.18661544,0.029361296,0.1937717,-0.05189579,1.3103071,-0.054636292,-0.15351452,-0.2452925,0.013580464,0.03866622,0.088683695,0.08832699,-0.07289461,-0.035193954,0.07638084,-0.076394126,0.0028622712,0.09792384,-0.06759933,-0.017926697,0.17542209,0.070971385,0.062820815,0.046009462
Tiemeng_Li,0.13971919,0.0021766261,0.06572566,0.07165018,0.06514175,0.03909127,-0.003011617,-0.304135,0.06884299,0.19191548,0.16098182,0.12124667,-0.017643368,0.08641574,0.0056134416,0.070262074,-0.027015055,0.046089996,-0.012377705,-0.29995835,0.054494377,-0.11565554,0.019954255,0.07547009,0.09859846,-0.39129162,-0.16376461,-0.035223104,0.15186378,-0.12580597,1.4201598,-0.004508336,-0.1788803,-0.31422603,-0.004549979,0.09926054,0.08583738,0.0957375,-0.14241903,-0.10665852,0.14652963,-0.10310134,-0.069235414,0.17020872,-0.09888984,-0.020423505,0.26357484,0.0658984,0.061262447,0.08809039
Feng_Qi_0004,0.08128964,0.06656696,0.08963405,0.04012694,0.05889548,-0.02152629,-0.078993276,-0.12730698,0.08452514,0.034593787,0.035572723,0.0038632487,-0.11853385,0.12372616,0.012378798,-0.02007571,0.04458903,0.0070464015,-0.117754556,-0.19843617,0.030377453,-0.0988256,0.017942116,0.059910096,0.02345128,-0.43243507,-0.1330384,-0.028142696,0.12149945,-0.057399694,1.2910897,0.023894232,-0.076886915,-0.18607502,0.038219288,0.0242231,0.06941321,0.068520695,-0.06932033,-0.049469925,-0.015342298,-0.12815392,0.050826605,0.11012168,-0.05123329,-0.027229434,0.13541847,0.08253896,0.074778475,0.087705046
Rongfeng_Li,0.22431402,0.03561923,0.00072555,0.07632069,0.040687416,0.21809706,0.118595436,-0.17084141,0.098421656,0.17076689,0.25056908,-0.008141014,0.089707166,0.0065626116,-0.09120536,0.0488732,-0.0282863,0.11167005,-0.11929872,-0.24620071,0.014685287,-0.16603865,0.10443644,-0.018214041,0.0904695,-0.33140785,-0.1820669,-0.028476229,0.096797526,0.016806895,1.2203414,-0.030569557,-0.20253341,-0.28894332,0.011618716,-0.025840478,0.01933153,0.08115322,0.026960688,0.040607996,0.08410454,-0.101132505,-0.13314402,0.09591581,-0.04087685,-0.10528671,0.2600529,0.18896602,0.03157062,0.084258385
Jincui_Yang,0.18669719,0.016559957,0.043950032,0.024441043,0.061559737,0.067640424,0.03387993,-0.17409201,0.10230329,0.030007312,0.09630833,0.04169708,-0.07999644,0.07744113,0.0025330947,0.0862031,-0.0136884665,0.010258347,-0.01680232,-0.196298,0.06982335,-0.10335425,0.040699463,0.08761964,0.05618454,-0.40260878,-0.16293281,-0.0010304016,0.14088078,-0.0019898235,1.2595276,-0.049405847,-0.14730428,-0.21587896,0.035744764,0.03009613,0.07889337,0.067855515,-0.06654542,-0.00027758442,0.04299721,-0.112910666,-0.011039092,0.1529889,-0.058494,-0.054262012,0.19663835,0.11401799,0.10257564,0.058774173
Ao_Xiong,0.15772447,0.038569137,0.108032934,0.06272123,0.012316809,0.032331605,0.019625861,-0.18319732,0.08441768,0.08933776,0.12450118,0.05959799,-0.078840315,0.057010256,-0.017899815,0.07582197,-0.011053982,0.052901447,-0.012165657,-0.1462475,0.07840432,-0.1159137,0.013305973,0.08320597,0.023388846,-0.35174358,-0.09791923,-0.013999486,0.13091251,0.015895624,1.2053795,-0.007418291,-0.10980799,-0.14726283,0.0012353831,-0.0021232793,0.044776976,0.04079553,-0.0031656257,-0.0027355002,0.08295762,-0.100779384,-0.02115813,0.12805258,-0.12917262,-0.061215673,0.15162387,0.09941141,0.10685077,0.08179317
Li_Wang_0039,0.16372225,0.06202437,0.10762998,0.047638956,0.015086895,0.045293443,0.03172613,-0.18990093,0.0814326,0.12130712,0.142444,0.07906759,-0.04861884,0.04329361,-0.0030274664,0.07596695,-0.013828888,0.045700915,-0.0056702145,-0.17335583,0.0820813,-0.1332969,0.006982083,0.09872719,0.032797903,-0.41504455,-0.1100201,-0.040484667,0.14572346,0.013545848,1.3614482,0.025072949,-0.11047571,-0.19623502,-0.008990713,-0.007888326,0.053389195,0.017193733,-0.05540254,-0.026041035,0.09751218,-0.122607455,-0.0060338005,0.16509822,-0.12772574,-0.08367618,0.15477453,0.14119247,0.10100478,0.0967079
Bin_Wu_0001,0.21085092,0.07689885,0.05581231,0.049034875,0.089299455,0.06949661,-0.020313753,-0.2121268,0.08511889,0.08499171,0.11887198,0.069646716,-0.058479965,0.061384153,0.042554893,0.07621687,0.009717153,-0.0055107595,0.009564983,-0.20522587,0.08081426,-0.10952519,0.054325733,0.12046131,0.09304131,-0.48296553,-0.20997119,-0.046759717,0.1320101,-0.03142628,1.4812402,-0.028158152,-0.13330826,-0.29643193,-0.018992735,0.0047273403,0.023924118,0.06241838,-0.07276447,-0.00848123,0.075348735,-0.110067874,0.00017669452,0.1648808,-0.058008887,-0.062340442,0.17493868,0.15951046,0.0907238,0.08417667
Zhili_Wang,0.16384247,0.020532254,0.051421747,0.015721805,0.027398713,0.053641774,0.014368193,-0.14549373,0.063773006,0.06203495,0.08588992,0.03732407,-0.034039494,0.055796318,0.0054135886,0.0650373,-0.00034106194,0.007629619,-0.01017449,-0.12513064,0.04111037,-0.08987834,0.024125876,0.045131806,0.06359711,-0.3090996,-0.12284089,-0.019235885,0.10699549,-0.0046367147,0.9969802,-0.01872363,-0.111599065,-0.17040248,-0.005997158,0.01096527,0.037393413,0.059183452,-0.032812186,-0.013033081,0.029107377,-0.07228198,-0.013730291,0.10345408,-0.069482714,-0.045691438,0.15077922,0.08540599,0.050126735,0.07125845
Ding_Xiao,0.1285277,0.044818025,0.022729129,0.013934586,0.06722285,0.062096387,0.0071325754,-0.11003398,0.03400951,0.058832057,0.07300993,0.01601425,-0.03628126,0.033801287,0.041805178,0.053734813,0.019043602,-0.003927674,-0.034695882,-0.15979531,0.052945588,-0.07748844,0.03230167,0.044980086,0.069651544,-0.30724394,-0.13911803,-0.031328466,0.08890018,-0.003002728,0.9599552,-0.0030849155,-0.09392426,-0.18384957,0.008830376,-0.016065404,0.03887408,0.06213064,-0.051032,-0.027373465,0.0134161925,-0.08638694,0.0007246687,0.09392792,-0.033628665,-0.027766675,0.124351725,0.094687104,0.03937455,0.06808528
Yingxia_Shao,0.1762384,0.03867586,0.054801308,0.013198086,0.071615815,0.056635164,0.0044711423,-0.19282942,0.073214516,0.07103765,0.11301213,0.059018303,-0.052038494,0.051079992,0.024850545,0.06868026,0.006955998,0.00830826,0.017955933,-0.20715724,0.06939567,-0.11742117,0.026523696,0.10289398,0.08606879,-0.39587727,-0.16860203,-0.040404838,0.120128825,-0.040004004,1.3161782,-0.02651195,-0.12657075,-0.22418599,0.004544474,0.0094317915,0.04003149,0.06597718,-0.042710587,-0.014188483,0.06660961,-0.12065675,0.0017260498,0.1442069,-0.0642476,-0.053439688,0.20766081,0.12983485,0.06734323,0.07874827
Rongheng_Lin,0.19033813,0.015294908,0.10372324,0.034165308,0.041965723,0.04804152,-0.030525027,-0.22182877,0.09562773,0.08200135,0.118960075,0.07627573,-0.059187174,0.049860023,0.029211985,0.075248726,-0.008318435,0.015059181,0.018478261,-0.22415772,0.081933565,-0.14618748,0.028252201,0.059337758,0.07290567,-0.47256777,-0.14431791,-0.024887215,0.14964336,-0.015809933,1.4379609,-0.045971155,-0.15799583,-0.22589028,-0.001284667,0.018479723,0.03314975,0.08194156,-0.032921396,-0.017834317,0.073566616,-0.10136341,0.004833877,0.14837447,-0.082659476,-0.05564518,0.18219206,0.14124385,0.09219394,0.06703952
Kun_Niu,0.19220714,0.019902827,0.07256985,0.0059818304,0.065945014,0.060395595,-0.009427373,-0.15850817,0.06935051,0.08392178,0.09536301,0.041093607,-0.02335786,0.040342033,0.0520279,0.08488699,0.009886994,-0.023794696,-0.0246994,-0.22494628,0.063211165,-0.15174448,0.030636938,0.06958102,0.0636085,-0.4638963,-0.1726187,-0.03895058,0.114787824,-0.017986301,1.3750986,-0.019699167,-0.11693928,-0.2624968,0.033616632,-0.0009845797,0.04309531,0.07805436,-0.015839256,-0.049909372,0.026316363,-0.08198794,0.0044111367,0.179286,-0.06982741,-0.04251636,0.19905272,0.18014005,0.08729475,0.088740155
Xirong_Que,0.19698086,0.039917428,0.124815494,0.06577049,-0.0054276073,0.015251709,-0.03666179,-0.20008121,0.10444377,0.08422903,0.13046555,0.078689575,-0.06991208,0.07016305,-0.009269947,0.10002033,-0.02139393,0.037244607,-0.0026026212,-0.1827113,0.10055244,-0.10465941,0.0084795775,0.1086772,0.045920305,-0.48991892,-0.123393506,-0.043904886,0.16084981,-0.0058457,1.4639188,0.027336834,-0.13124686,-0.23672456,-0.043494828,0.018011387,0.033599976,0.030484555,-0.08836119,-0.008460063,0.10241003,-0.07708559,-0.013071508,0.15825321,-0.10934112,-0.062121954,0.13091044,0.12243975,0.06126778,0.09482156
Dahai_Jin,0.18281089,-0.0010066761,0.08901942,0.0082861,0.027283456,0.090565704,0.022677658,-0.1530825,0.08302193,0.06789635,0.12655015,0.06196571,-0.06892223,0.06420936,0.006859065,0.09177966,0.002426038,0.0028573372,-0.025190588,-0.20545697,0.022744121,-0.09448427,0.022666188,0.036675643,0.112111144,-0.49095878,-0.15519837,-0.03888191,0.12538227,-0.03913834,1.3113941,-0.04594132,-0.1770631,-0.26522997,0.042773515,0.015106119,0.10470284,0.037880328,-0.051837802,-0.0035078407,0.02572444,-0.08593018,0.014324521,0.13489684,-0.047167335,-0.021807313,0.18942536,0.16035266,0.06456096,0.055871237
Guangwei_Zhang,0.23240755,-0.057149716,-0.021320542,0.020216493,0.00042850425,0.0010932287,0.1381098,-0.14209338,-0.10618376,0.08743685,0.15880732,0.039586913,-0.08457617,0.022918906,-0.08229936,0.1126629,-0.07335137,0.105876155,0.010939755,-0.182928,0.08342512,-0.10487082,0.017446725,0.10965058,0.026098462,-0.4147807,-0.23055875,-0.024052214,-0.06818629,-0.09216035,1.2208475,0.01159778,-0.075610094,-0.20191436,0.022071306,-0.06633212,0.08674056,0.045686726,0.06591682,0.15471734,0.04277491,-0.01754084,-0.09465942,0.18247566,-0.11221738,-0.083995625,0.17583324,0.1150117,0.029120026,0.105639406
Yuan_Dong,0.09950197,-0.089532174,0.071463436,-0.008325898,0.05899479,-0.0753101,0.038568906,-0.15390655,0.055877183,0.07546823,0.118732706,0.024970673,-0.008372048,0.057386953,0.042891562,0.09783643,-0.05155147,-0.007828798,0.007508045,-0.24023575,0.122678556,-0.11317929,0.017298501,0.088579,0.10827161,-0.41055483,-0.10078884,-0.042050693,0.10100401,-0.058135748,1.3288909,0.028012792,-0.14085631,-0.16011137,0.009904131,-0.019077083,0.0834665,0.0057127033,-0.052817933,0.0121244155,0.013411635,-0.09288191,0.012282464,0.1404802,-0.08414647,-0.04744377,0.24254529,0.14676562,0.06707849,0.07616087
Shangguang_Wang,0.1621693,0.025786113,0.07892837,0.023169963,0.01110972,0.004136801,-0.021096209,-0.14796855,0.08262353,0.08290817,0.086622715,0.06569558,-0.04158554,0.04671173,0.0215924,0.06743651,0.0065111155,0.018487178,-0.004092458,-0.15881675,0.069262475,-0.10120047,0.0105603505,0.06401237,0.052543405,-0.35916907,-0.11300066,-0.039665345,0.11096801,0.0033096815,1.1339453,0.0076323464,-0.102474734,-0.18674444,-0.013882039,-0.00025542264,0.020155443,0.04022302,-0.035850536,-0.036233526,0.049329758,-0.09840762,0.0061119315,0.13769072,-0.07526792,-0.035315964,0.13738246,0.12053452,0.05873874,0.083104454
Xiangang_Qin,0.13890518,0.045789193,0.06640513,0.0023667985,0.067393534,0.04018401,-0.062060833,-0.17964748,0.058908872,0.064087465,0.10787827,0.04044238,-0.036003664,-0.011305718,0.08493442,0.069461524,-0.0525501,0.02263075,-0.0042373594,-0.20355989,0.09948368,-0.046845317,0.065629736,0.058062445,0.102216154,-0.485923,-0.16090041,-0.080866404,0.053577054,-0.034804717,1.394137,0.045834042,-0.12238065,-0.240675,0.0002678011,-0.031784523,0.046129603,0.07725531,-0.027264075,-0.04535233,0.041657016,-0.10656747,0.031657882,0.10970924,-0.03820653,0.016675405,0.11564225,0.12297219,0.036814936,0.08057481
Xin_Li_0041,0.22830184,0.080020234,0.17703345,0.057334162,0.0024075015,0.08354167,-0.0020738684,-0.2569894,0.13878086,0.079443716,0.1379253,0.059205584,-0.04203327,0.05992521,-0.080281116,0.100330666,-0.029250586,0.05245623,0.011289259,-0.19409911,0.09766531,-0.16960761,-0.011245843,0.10528395,0.017008144,-0.42861557,-0.08593397,-0.04514659,0.17500469,0.0017543628,1.5383995,-0.017044438,-0.094375715,-0.2855571,-0.019109603,0.039190076,0.07095023,0.02032803,-0.09482656,0.0023802565,0.111182705,-0.12264315,-0.043541916,0.19844507,-0.1526844,-0.0891933,0.16659722,0.11019788,0.05796798,0.10281392
Bo_Hu_0003,0.14439858,0.054227356,0.13567443,0.0690282,-0.0010921699,0.02611711,0.0067115556,-0.1709593,0.10007322,0.06282899,0.118026935,0.04329555,-0.041964192,0.048158556,-0.011588411,0.08045087,-0.03311256,0.043650243,-0.03148228,-0.15248035,0.08600449,-0.13368396,-0.0049768914,0.076926075,0.029613454,-0.3594457,-0.08202576,-0.03299538,0.12659812,0.017192382,1.1285651,0.026067842,-0.105800055,-0.15300727,-0.009292003,-0.014372946,0.067611665,0.022021225,-0.08453733,0.0044119055,0.08648502,-0.07474262,-0.023014277,0.1279353,-0.12484324,-0.06056597,0.12159988,0.10428603,0.05618693,0.08136868
Wenhua_Shao,0.124361716,0.063391685,0.046558645,0.017268354,0.014444694,0.015640844,0.029919755,-0.12133863,0.05275052,0.08277687,0.07313199,0.008270038,-0.011500813,0.07760144,0.0066682966,0.08222545,0.03197791,0.023807779,-0.055775374,-0.17693841,0.057395987,-0.08707621,-0.020278344,0.046197634,0.05409355,-0.32179898,-0.10786037,-0.036905944,0.11353178,-0.010380446,1.0222808,-0.008654816,-0.109168425,-0.20959377,0.02016033,0.036875594,0.077375844,0.07024854,-0.03382056,0.0049868547,0.024932068,-0.08244304,0.015159148,0.17402351,-0.040116124,-0.019167004,0.15601853,0.08780088,0.032129243,0.053952657
Junping_Du,0.16346584,0.037665848,0.040166356,0.023187079,0.06345427,0.088755965,0.025330413,-0.18744631,0.052645918,0.08145883,0.1277447,0.05806081,-0.043326635,0.05314802,0.0037295492,0.07729644,0.002017465,-0.005375651,-0.008406069,-0.20695052,0.048468206,-0.13841797,0.023207083,0.07359946,0.066520005,-0.42486018,-0.15619485,-0.015417968,0.13186674,0.0019421258,1.2968282,-0.045735165,-0.13859545,-0.25100625,-0.0029772802,-0.0028468838,0.045273453,0.07471281,-0.0472482,-0.0005189138,0.060924202,-0.08348329,-0.023241675,0.15768479,-0.084187075,-0.056763742,0.18277057,0.12583336,0.08717172,0.07741261
Meilian_Lu,0.2116752,0.05938745,0.09461824,0.054801185,0.033532947,0.03599139,0.0016983923,-0.19107509,0.12289462,0.09818659,0.13063167,0.05790337,-0.004355014,0.0637894,0.019458555,0.118973985,-0.028940048,0.00018201675,0.014373239,-0.1979056,0.09533748,-0.14480765,0.063464165,0.14299707,0.054085866,-0.44344586,-0.1402246,-0.012493628,0.17424345,0.004189075,1.4516357,-0.034830995,-0.10992882,-0.30452916,-0.016802639,0.00108568,0.04338509,0.031110696,-0.07301682,-0.0060904687,0.088869095,-0.113929726,-0.012092883,0.20764358,-0.08524259,-0.08252291,0.19342202,0.1878924,0.090980925,0.1218231
Wenbin_Yao,0.0,0.0,0.0,0.0,0.0,0.0,0.0,0.0,0.0,0.0,0.0,0.0,0.0,0.0,0.0,0.0,0.0,0.0,0.0,0.0,0.0,0.0,0.0,0.0,0.0,0.0,0.0,0.0,0.0,0.0,0.0,0.0,0.0,0.0,0.0,0.0,0.0,0.0,0.0,0.0,0.0,0.0,0.0,0.0,0.0,0.0,0.0,0.0,0.0,0.0
Zhaowen_Lin,0.17010134,0.011852091,0.07964404,0.07046713,0.014753347,0.003774102,-0.020470358,-0.1788266,0.09141338,0.057175536,0.09336449,0.067786954,-0.042293657,0.061015856,0.019895855,0.105235,-0.018172238,0.037879713,-0.004272062,-0.15390272,0.08825279,-0.091077745,-0.010529019,0.028312117,0.011423832,-0.41353828,-0.10378231,-0.026107484,0.12829776,-0.009795399,1.1720195,-0.023730358,-0.14783177,-0.21996772,-0.026476795,0.06159986,0.0393687,0.030578202,-0.058079164,-0.029422944,0.057776384,-0.076431885,0.007712598,0.14669114,-0.046650685,-0.010182343,0.098311804,0.1162217,0.04866744,0.027244186
Liutong_Xu,0.0,0.0,0.0,0.0,0.0,0.0,0.0,0.0,0.0,0.0,0.0,0.0,0.0,0.0,0.0,0.0,0.0,0.0,0.0,0.0,0.0,0.0,0.0,0.0,0.0,0.0,0.0,0.0,0.0,0.0,0.0,0.0,0.0,0.0,0.0,0.0,0.0,0.0,0.0,0.0,0.0,0.0,0.0,0.0,0.0,0.0,0.0,0.0,0.0,0.0
Jinglin_Li,0.20038192,0.03677368,0.06004596,0.061732993,0.19033165,0.05564869,0.09323019,-0.28844583,-0.057697363,0.0328141,0.052762855,0.10025269,-0.121407785,0.15920307,0.01133154,0.19465986,0.063737966,0.02613737,-0.034651887,-0.18117207,0.19623373,-0.35368815,0.0318135,0.030434743,0.042918235,-0.3820094,-0.27160186,-0.05091769,0.06409442,-0.05566176,1.4938675,-0.090068586,-0.14914572,-0.120159104,0.04102774,-0.01975977,0.1611063,0.16513535,0.022905951,0.096408874,0.008954685,-0.1332911,-0.20139058,0.19222866,-0.1680772,0.10508102,0.25045297,0.124098994,-0.0006967581,0.09235174
Shao-Yong_Guo,0.18355867,0.027856171,0.12551256,0.05141256,0.013710005,0.027985778,-0.008844955,-0.15613276,0.09975278,0.07462025,0.109509334,0.052271187,-0.069403894,0.05445673,-0.016815923,0.10107983,0.006470152,0.02288747,0.0031510447,-0.15990548,0.087186456,-0.13109495,-0.01092817,0.07985055,0.030703185,-0.38256162,-0.101649016,-0.030668188,0.14787236,-0.0014041595,1.2353476,0.011046237,-0.10423758,-0.17211469,-0.002541984,-0.0005318055,0.023557397,0.040029194,-0.013281115,-0.01887477,0.06125257,-0.10445503,-0.006186081,0.13155334,-0.09882185,-0.050605215,0.15194784,0.11252307,0.079876505,0.076570235
Yidong_Cui,0.11563613,0.030249113,0.078165226,0.01095653,0.18252052,0.033968713,0.006412387,-0.29526582,0.02672462,0.08917832,0.09776638,0.122006804,0.02702001,0.058724716,-0.01300867,0.09370989,-0.039344788,-0.038421076,-0.051746126,-0.26592743,0.04269171,-0.27036047,0.104011685,0.14833818,0.041787006,-0.6163332,-0.1860921,0.012631669,0.19149171,-0.034530267,1.746688,-0.089001365,-0.14799418,-0.23275834,0.10773811,0.018471124,0.04120109,0.013123863,-0.076654226,-0.02870907,0.089052595,-0.056229375,-0.098712094,0.28860447,-0.11135941,-0.04664491,0.2996929,0.15650372,0.16975774,0.05723157
Yanlei_Shang,0.1780952,0.037605457,0.13158447,0.030748729,0.006908257,0.034205962,-0.011126264,-0.18025285,0.108712986,0.10062109,0.1210013,0.060795333,-0.047733415,0.050336946,0.017530538,0.09244881,-0.031153463,-0.0069229933,-0.02461052,-0.22862388,0.09602462,-0.13523886,0.014112045,0.06218601,0.07214843,-0.45101547,-0.1278533,-0.042096343,0.15209693,0.0013329454,1.4004049,0.0040985593,-0.1358705,-0.23114106,-0.00042962332,-0.01969166,0.063876815,0.033196915,-0.062066875,-0.023410855,0.07636378,-0.08752819,-0.020141544,0.1678932,-0.12509753,-0.07093567,0.19992623,0.15278687,0.050329812,0.10229164
Xuejing_Kang,0.18134491,0.037094366,0.06462763,0.018133678,0.11151384,0.090412915,0.04919973,-0.17573567,0.058275994,0.08688202,0.09767149,0.036648083,-0.01603325,0.053066958,-0.0054638535,0.070059426,0.027285397,-0.032221347,-0.021054845,-0.20435315,0.043686107,-0.17339757,0.0563196,0.06941638,0.048063837,-0.34877944,-0.1612411,-0.011818461,0.1694624,-0.026947686,1.2264413,-0.07247194,-0.13267384,-0.23549116,0.031902853,0.024744743,0.04094201,0.080413125,-0.06503656,-0.0031682677,0.074485555,-0.092273735,-0.02388304,0.13636217,-0.09308672,-0.034254942,0.22293304,0.107307546,0.052211743,0.06145417
Sujie_Shao,0.12494278,0.018322174,0.12656468,0.057896238,0.008752889,0.023451379,-0.0064122747,-0.11216268,0.1037077,0.05036302,0.085934505,0.021747738,-0.038612124,0.039020564,-0.020697553,0.073266245,-0.021527175,0.004624599,-0.0029639553,-0.12639084,0.06287245,-0.106279925,-0.013424927,0.05162275,0.010679959,-0.23104914,-0.049653325,-0.011565065,0.11566174,0.009416888,0.8489225,0.009533804,-0.048686504,-0.110120945,-0.0012823294,0.00490771,0.014895479,0.0020842126,-0.00504224,-0.02515962,0.058815803,-0.07888333,-0.016075825,0.09847,-0.07499767,-0.044420216,0.1315801,0.078849666,0.05257619,0.040883645
Anlong_Ming,0.1881583,0.056093566,0.022855245,0.010860618,0.09536555,0.09245588,0.05451222,-0.20982942,0.044989564,0.09724894,0.12162256,0.048059322,-0.030461116,0.08284643,-0.0033485014,0.06773843,0.022889633,-0.0015941275,-0.07034703,-0.26633605,0.041292287,-0.1213696,0.02987595,0.043782864,0.088939205,-0.41787854,-0.21065234,0.0022976915,0.16720855,-0.032563124,1.4159201,-0.05675108,-0.15243839,-0.28081265,0.015996583,0.03792462,0.06233108,0.09181406,-0.08984907,-0.03934896,0.07855861,-0.10624215,0.009541396,0.14380234,-0.09806968,-0.03748946,0.24824429,0.10247761,0.059956305,0.0644771
Bai_Wang_0001,0.19877936,0.066582516,0.06570605,0.053010315,0.08528532,0.048220906,-0.031055203,-0.21744521,0.07467556,0.07410196,0.10998512,0.068959825,-0.06097474,0.055744912,0.039078925,0.079071335,0.0069513605,-0.0074632405,0.019325972,-0.1989181,0.081819825,-0.11490036,0.045617886,0.122933075,0.07961714,-0.47039106,-0.19327621,-0.04967057,0.11951314,-0.038903855,1.4498061,-0.013794591,-0.12648092,-0.2620226,-0.030624475,-0.007696054,0.01372222,0.056901522,-0.0635202,-0.0048016915,0.075551696,-0.10679756,0.0052092434,0.16799662,-0.06375118,-0.052801296,0.15899454,0.15219353,0.0873122,0.07497883
Hui_Gao_0001,0.15943623,0.08401937,0.09820645,0.05011597,0.017491143,0.042543057,0.05400826,-0.17919272,0.06656548,0.09423621,0.13556601,0.07583325,-0.013012535,0.08367472,-0.05248481,0.058563378,-0.009849699,0.055918,-0.06765291,-0.1543538,0.08196671,-0.15681997,0.035082925,0.096237116,0.021928404,-0.38012946,-0.11023917,-0.021254638,0.13054793,-0.016801653,1.2978209,0.001032178,-0.12651525,-0.18581475,-0.00187364,0.005933059,0.094644375,0.008427116,-0.06545868,-0.00022241095,0.10838972,-0.11958116,-0.03403458,0.16764978,-0.14780639,-0.10350062,0.1734709,0.12593083,0.10687698,0.08850437
Fangchun_Yang,0.2254519,0.11751703,0.19585913,0.05388636,0.052708805,0.10305096,0.018216437,-0.31301513,0.072358645,-0.03011163,0.16534507,-0.030295722,-0.028815018,0.13376598,-0.10701093,0.103599586,-0.09479583,0.10844975,-0.18331322,-0.23628819,0.049015112,-0.11857467,0.005647864,-0.046717398,0.095735624,-0.44977874,-0.21916083,0.029844495,0.17902684,-0.13551114,1.4860389,-0.08501651,-0.20043501,-0.27680364,0.0716199,0.093699515,0.20289713,0.15915596,-0.116371036,0.024934517,0.10829964,-0.122308254,0.05515811,0.0490638,-0.13455398,-0.027703539,0.27087358,-0.032865606,0.004251059,0.028651023
Dongliang_Xie,0.17867342,0.02123279,0.116872594,0.04965491,0.04322702,0.03782792,-0.005419003,-0.17717986,0.09183165,0.073614545,0.13240393,0.046321753,-0.064953245,0.07313825,-0.010034121,0.09730352,-0.016086293,0.02841105,-0.017409924,-0.21218768,0.09928587,-0.11219896,0.018111449,0.07350511,0.04703978,-0.41614023,-0.14099196,-0.042927958,0.13625523,-0.02518534,1.3143504,0.024359336,-0.111125,-0.21391363,0.00676339,0.0012018373,0.03919573,0.054631583,-0.056869708,-0.006435228,0.062764294,-0.097813845,0.004900347,0.12935755,-0.084205866,-0.031448428,0.15447168,0.120636694,0.044151615,0.07478501
Xiangwu_Meng,0.15952685,-0.08625739,0.043256167,0.02269504,0.11769685,-0.04128478,-0.10829504,-0.27572954,0.07413413,0.0038608203,0.10455967,0.13222489,-0.1456963,0.0056093372,0.06627342,0.014038234,0.08488385,0.01144871,-0.052497156,-0.19580485,-0.012350815,-0.22061673,0.074139364,0.16000263,0.06606187,-0.3864071,-0.17211205,-0.042095385,0.16266613,-0.07159488,1.2999606,-0.09216423,-0.25695962,-0.14138655,0.057316832,0.08539324,0.075905636,0.1285332,-0.02747579,-0.00093364425,0.07666051,-0.10644991,-0.15399653,0.12062574,-0.04069297,-0.056483436,0.25197124,0.00641697,0.201559,0.075978935
Jingling_Zhao,0.20446739,0.009137537,0.10774411,0.058125947,-0.0032410666,0.04929831,-0.027695434,-0.21923062,0.118308544,0.112440675,0.14061706,0.09116282,-0.057537213,0.07184897,0.015881803,0.10703149,-0.02765011,0.008798919,-0.01014558,-0.22580698,0.08956372,-0.15663092,0.04339195,0.05924873,0.08167235,-0.5478743,-0.15082324,-0.032280263,0.15206319,-0.050349884,1.5530692,-0.040372785,-0.1965465,-0.24620412,0.017819922,0.013047422,0.07809509,0.0759356,-0.05309648,-0.013362205,0.07561379,-0.10054912,-0.0026740453,0.15780897,-0.06814237,-0.020081114,0.1969015,0.17395383,0.08865924,0.06791907
Pengrui_Duan,0.18612066,0.044730287,0.10724489,0.039723366,0.028953528,0.048917256,-0.03045004,-0.14612408,0.13264318,0.07988118,0.1215392,0.065588266,-0.07510428,0.090242945,0.0016940053,0.07520436,-0.011220851,0.00027467907,-0.06986445,-0.16935387,0.11194347,-0.09842079,0.046871,0.045693208,0.0773152,-0.46758333,-0.14879876,-0.032985136,0.1527245,-0.0008600801,1.4207966,0.045436632,-0.07083434,-0.23662992,-0.026755568,0.026972517,0.056203105,0.05137533,-0.072552085,-0.024083104,0.05466477,-0.08647915,-0.016645059,0.11142752,-0.10125996,-0.036820818,0.12685344,0.124811485,0.05722441,0.07166435
Wendong_Wang,0.16294965,0.03896282,0.10073765,0.0325062,0.046918567,0.028306857,0.005846874,-0.17684163,0.072966486,0.07227096,0.097502925,0.061926123,-0.055274658,0.03784055,0.008798597,0.070780516,-0.006202401,0.009090951,-0.011112688,-0.17903768,0.06674094,-0.11842747,0.03550922,0.070748076,0.039583124,-0.40238142,-0.1197918,-0.037840486,0.12516157,-0.008810552,1.2617041,0.00079138204,-0.12262477,-0.19733535,-0.005092969,0.00462222,0.04264701,0.046057366,-0.05057178,-0.024688473,0.08201899,-0.08935613,-0.009794323,0.13793854,-0.08775983,-0.03799018,0.15072161,0.112628624,0.06362538,0.07932126
Shao-Zhang_Niu,0.17648819,0.0069773537,0.19516887,0.08980391,0.031012991,0.09023464,0.053354703,-0.24518311,0.096086584,0.14620349,0.16322447,0.034794003,-0.028873047,0.086297534,-0.0028494534,0.13442911,-0.015872357,-0.06366185,0.011757786,-0.22063024,0.021577196,-0.22565828,0.08278317,0.08578314,0.022761723,-0.42374137,-0.1343004,0.012949107,0.18924047,-0.054517962,1.3903067,-0.081473336,-0.1604098,-0.30560353,0.00884112,0.11457766,0.023638705,0.06553346,-0.032940574,-0.06125408,0.13989876,-0.046829734,-0.039170366,0.15584466,-0.089938365,-0.026055442,0.29301286,0.13080348,0.09406787,-0.054764755
Yan_Sun_0004,0.17218445,0.038806215,0.073575236,0.021826753,0.044710536,0.048911765,-0.025330242,-0.16766658,0.072555974,0.08892991,0.09577797,0.055540122,-0.04825302,0.04056218,0.029345775,0.083180234,-0.0007349651,0.006515311,-0.0119938655,-0.18011752,0.07365406,-0.10208786,0.0041679037,0.049294192,0.06254799,-0.445817,-0.14038144,-0.039993405,0.12714033,-0.026422424,1.3230034,-0.01834404,-0.14267781,-0.22835341,-0.0027006662,0.03750395,0.052400567,0.060945548,-0.040424354,-0.054520648,0.06790141,-0.09803026,-0.020173717,0.14363888,-0.060086563,-0.028894825,0.16583684,0.12926972,0.054786008,0.05930699
Yuyu_Yuan,0.15302752,-0.0387643,0.19887042,-0.009312156,0.038014103,0.12270037,0.16597448,-0.37340838,0.021247359,0.07939135,0.21173532,0.021177787,0.105279565,0.06623357,-0.16405928,0.18290071,-0.12639676,0.14030801,-0.06036434,-0.30661666,0.07403274,-0.2961358,0.019082474,-0.19164503,-0.12671521,-0.52113247,-0.16052292,0.20096952,0.22773416,-0.16407569,1.4922215,-0.05818367,-0.15023352,-0.12304873,-0.09762416,0.22256818,0.09932941,0.16346815,0.092925265,-0.0590364,0.21237768,-0.026360862,0.0051888674,0.0951955,0.03160833,-0.043544214,0.19266129,-0.06116324,0.0462765,-0.12168151
Wenan_Zhou,0.17903528,0.0386456,0.10443421,0.05384942,0.017523367,0.027353305,-0.009985727,-0.19528577,0.08474674,0.10204171,0.13113931,0.08310655,-0.025073892,0.0807037,-0.01364736,0.088755324,-0.018291915,0.04726856,0.015394245,-0.14419147,0.09923603,-0.12776166,0.029066278,0.1319111,0.042148974,-0.4109075,-0.13659464,-0.051728033,0.13484795,-0.024659524,1.3102819,0.001002123,-0.12654556,-0.20664544,-0.014725508,0.014770597,0.03309336,0.03185914,-0.07209594,-0.0113708805,0.09271817,-0.10770445,-0.013374137,0.15851992,-0.10317434,-0.06875941,0.15562466,0.12623467,0.08371494,0.09478242
Xiang_Cheng_0003,0.1697537,0.039500855,0.05686888,0.022488661,0.08053086,0.031266324,0.0070073185,-0.16511156,0.0695027,0.057074953,0.06407434,0.053258143,-0.04690502,0.0014626563,0.044841975,0.059083655,0.015851261,-0.012643901,0.017625632,-0.18168412,0.062443305,-0.123186,0.040978998,0.09786397,0.061764635,-0.38289952,-0.13942346,-0.03396325,0.11116685,-0.016443687,1.2038525,-0.020463955,-0.124401264,-0.2076497,0.006326899,0.00054372026,0.018927507,0.048170462,-0.036043316,-0.020298678,0.06353407,-0.08793569,-0.025711445,0.16177404,-0.072424866,-0.06697866,0.17620856,0.13150136,0.090135835,0.06801663
Songwei_Pei,0.18404084,-0.029243099,0.06303787,0.0028907345,-0.014055198,0.1083641,0.049524665,-0.078429334,0.10040645,0.09352334,0.08124262,-0.0018502775,-0.053411998,0.07113964,-0.028581787,0.075968616,-0.005010527,-0.021420917,-0.0719353,-0.21203612,0.10006649,-0.15019949,-0.011994067,0.014814729,0.06699198,-0.4252674,-0.10236954,-0.006603459,0.12773913,0.0071715876,1.2164304,-0.040942088,-0.15020122,-0.18101932,0.06507314,-0.0023200242,0.11973026,0.0781987,-0.04747707,-0.029277174,0.007763989,-0.09209189,-0.038436364,0.11931067,-0.07614433,-0.018520864,0.2031836,0.14285621,0.07879626,0.03213545
Xiaoyuan_Fu,0.16932927,0.006875506,0.04558678,0.035589516,0.032478303,0.029553669,0.04891692,-0.117110796,0.08909626,0.04175647,0.08561557,0.058400843,-0.059354663,0.05710045,0.015926724,0.07455898,0.035376254,0.039802387,0.0025480555,-0.13673371,0.05647156,-0.10260031,0.0037412217,0.061952233,0.059487812,-0.2852048,-0.10869567,-0.03592885,0.116328,0.017913077,1.0415093,0.03702983,-0.0661464,-0.18229683,-0.02390491,0.025855727,0.013211929,0.008414845,-0.010377947,-0.02411584,-0.014861807,-0.11482268,-0.005402792,0.13298324,-0.07817425,-0.04529949,0.1465868,0.1072603,0.06920777,0.08229404
Jianxin_Liao,0.1599209,0.03011734,0.06933801,0.03515785,0.026389211,0.027987657,-0.0010304755,-0.14850752,0.07501582,0.07018147,0.09198314,0.057257775,-0.04024958,0.055104878,0.0018130584,0.081535175,-0.0033478127,0.0037863478,0.0007744249,-0.1694246,0.0726797,-0.10711527,0.020504702,0.078323394,0.060350034,-0.36566058,-0.11046549,-0.026680471,0.13585958,-0.022334596,1.1806756,0.0048882905,-0.114655174,-0.19972737,-0.0007888132,0.017787721,0.035829786,0.040361132,-0.05724829,-0.014715764,0.053636298,-0.092380024,-0.0082729915,0.14291656,-0.09112066,-0.037501357,0.1606109,0.11298032,0.06076466,0.05828258
Tong_Xu_0002,0.14875266,0.037970133,0.08077116,0.03005629,0.07131221,0.04833136,0.048156038,-0.17519459,0.068585195,0.05989641,0.09808128,0.0738877,-0.04103726,0.046781182,0.010741368,0.07622111,-0.013268953,-0.024283307,-0.009478974,-0.16695261,0.044976816,-0.15940481,0.045256957,0.06942871,0.043987013,-0.37554598,-0.1605126,-0.024161553,0.14848767,-0.015636675,1.2016771,0.0061001405,-0.11335768,-0.19561444,0.0012558624,0.01845316,0.06351481,0.025313698,-0.060390208,-0.0080966465,0.06028436,-0.082094036,-0.028327018,0.15061937,-0.12030617,-0.039787367,0.17405154,0.110593095,0.08485316,0.066251844
Fang_Zhao_0003,0.14379147,0.029984955,0.0804524,0.026048299,0.0173129,0.024377523,0.01480339,-0.14003812,0.06887792,0.062314373,0.10174,0.019669928,-0.016549468,0.06316805,-0.009943215,0.080389604,0.00396823,0.026359886,-0.050219942,-0.18315521,0.06331072,-0.103172585,-0.006615985,0.05870059,0.06856059,-0.31849918,-0.11105218,-0.037039056,0.11327734,-0.0061657564,1.049566,-0.00681932,-0.09817524,-0.200492,0.027814548,0.027678668,0.062727675,0.060125034,-0.032000385,0.015988266,0.037078302,-0.07019061,0.003577826,0.13958076,-0.058807045,-0.030221809,0.17146437,0.09749015,0.052511383,0.05670535
Chong_Gao,0.09264811,-0.08360029,0.0901222,0.023676166,-0.009024632,0.16785176,0.012859274,-0.14365683,0.079194106,0.06565279,0.16074647,-0.03817428,-0.16930604,0.12206307,-0.054969627,0.056411434,0.017371383,0.030506408,-0.14547539,-0.37375304,-0.0068463087,-0.10930306,-0.113498926,0.08445475,0.23000945,-0.55846024,-0.16081943,-0.015872238,0.17856772,-0.12392077,1.5561231,0.044869184,-0.19539206,-0.205163,0.039562706,0.03447951,0.17178202,0.12938939,-0.10353271,-0.05231941,0.044373352,-0.12498926,-0.037160378,0.17600125,-0.10547167,-0.03641774,0.33832112,0.08225178,0.11749516,0.01276147
Hai_Huang_0001,0.13794973,0.03930321,0.06542928,0.01688254,0.02203711,0.043322455,0.0256291,-0.16409813,0.056606714,0.08267021,0.10089574,0.048524674,-0.02107001,0.051356565,-0.024541058,0.05603538,-0.017168235,0.010276031,-0.022774223,-0.15954915,0.049698442,-0.113968104,0.023657864,0.08476949,0.056371357,-0.3156225,-0.1149738,-0.011195814,0.10496945,-0.008011375,1.0484248,-0.018947389,-0.10402315,-0.18038005,-0.0020066134,-0.0018316145,0.0655006,0.03344174,-0.05033914,0.009491788,0.08392351,-0.05839021,-0.056316245,0.13376644,-0.08303729,-0.081698656,0.16727701,0.079836905,0.082229696,0.0904866
Xiaofeng_Du,0.2869531,0.039457947,0.0866685,0.030857986,0.08602771,0.03437702,0.010204574,-0.19942468,0.057794888,0.086084016,0.13950989,0.11438049,-0.034939677,0.0785055,-0.045670494,0.13430147,-0.034997135,-0.008363839,0.09210575,-0.22374898,0.03250856,-0.11748074,0.09151875,0.101292714,0.16923763,-0.4729697,-0.20771015,-0.033248212,0.22452118,-0.06705781,1.5869569,-0.05216386,-0.20418118,-0.32412577,0.033819214,0.036762454,0.040674657,0.10380775,-0.13153076,0.055151954,0.116158746,-0.15090996,0.0014309622,0.18076448,-0.08224182,0.014505071,0.24595544,0.2655869,0.009271349,0.07957491
Kun_Xie_0003,0.21176553,0.029440157,0.13600294,0.08359787,-0.044458136,-0.0019747363,-0.039279588,-0.19181918,0.12844479,0.09069634,0.14467838,0.055478282,-0.15023784,0.09013878,-0.04325875,0.11133426,0.008058194,0.058703642,-0.058483258,-0.14205803,0.12927626,-0.13398936,0.003937554,0.09534728,0.032777987,-0.518432,-0.12487945,-0.013191819,0.17711893,0.0181508,1.5818678,0.0137156015,-0.11416277,-0.21814111,-0.032446582,0.0018171337,0.0121782515,0.03193965,-0.03023736,0.03089575,0.055463925,-0.109266326,-0.0124299545,0.10193996,-0.15875195,-0.0074752495,0.14970884,0.1385621,0.08575454,0.04926085
Yunzhan_Gong,0.16171344,0.003036622,0.0662323,-0.006217761,0.041649543,0.09060385,0.039631434,-0.13511674,0.055443045,0.072973445,0.10923893,0.04468181,-0.07272645,0.06457128,0.014918243,0.07044057,0.010566213,-0.010566448,-0.027111243,-0.18602704,0.00885307,-0.09530901,0.02001771,0.04488871,0.105223574,-0.441585,-0.15466112,-0.027943235,0.11110532,-0.026297731,1.2084478,-0.04409086,-0.15087095,-0.22650824,0.037748434,0.009017956,0.10156797,0.042267688,-0.04802957,0.0015834563,0.028947236,-0.0775677,0.0024558108,0.13695136,-0.05148328,-0.024479188,0.18409233,0.15227261,0.06943221,0.045455217
Yang_Zhang_0015,0.13893262,0.026267318,0.0397116,0.04645319,0.022496171,-0.004725535,-0.0095118,-0.16342102,0.059083093,0.04628885,0.07106042,0.058915388,-0.053909197,0.05749689,0.01904217,0.07922843,0.015183218,0.011141761,0.04544904,-0.16701703,0.086060904,-0.08797737,-0.01378474,0.052516848,0.067652404,-0.38741893,-0.11706545,-0.050400082,0.08551364,-0.016118096,1.140902,-0.028953452,-0.17133632,-0.20584995,-0.027875246,0.021140978,0.038883887,0.06268673,-0.07006755,-0.011641444,0.058269434,-0.10641244,0.015532261,0.13766171,-0.062826805,-0.023451496,0.12145309,0.1222426,0.06495953,0.041056413
Changqiao_Xu,0.15920018,0.027002245,0.10120426,0.05203398,-0.0029723973,0.006457177,-0.012035744,-0.1612582,0.09653835,0.116592914,0.10152776,0.06910287,-0.04091834,0.05355324,0.0051988303,0.07048329,-0.015570829,0.01929738,0.0020650297,-0.15538746,0.09989875,-0.10589697,0.021255042,0.08949035,0.0463101,-0.36989862,-0.095147766,-0.027275387,0.13195875,-0.0025505559,1.2076782,0.011544636,-0.090593114,-0.17991151,-0.03277962,0.0063909297,0.037707362,0.019700002,-0.07052928,-0.028677246,0.096540794,-0.07990312,-0.03345368,0.12745742,-0.090316996,-0.050284885,0.12771139,0.11034442,0.06388028,0.08089813
Qiang_Fu_0004,0.19767055,0.046531018,0.0048222123,-0.004134341,0.116469406,0.069456786,0.02803555,-0.21597864,0.0153528275,0.047966745,0.0997534,0.032842938,-0.045267783,0.066904835,0.021719519,0.08403244,0.021124136,0.026900558,-0.03643168,-0.27036095,0.018938579,-0.07839341,-0.04048513,0.04073884,0.09428387,-0.37447205,-0.21945785,0.032001518,0.12601085,-0.059246913,1.2214532,-0.06400703,-0.14543079,-0.29887092,-0.002221769,0.06058887,0.10734853,0.086565234,-0.123793155,-0.04534896,0.07805832,-0.091774486,0.0018553938,0.124658465,-0.09603417,-0.014613384,0.18779072,0.039799888,0.03701209,0.049452554
Wenming_Guo,0.22119573,0.033907883,0.09644827,0.0333537,0.06344281,0.06182227,-0.017447704,-0.17252548,0.108942024,0.045986883,0.10007468,0.047202237,-0.03815233,0.030536013,0.029516151,0.056004364,-0.007230498,-0.006435545,-0.039782826,-0.22510523,0.07159479,-0.17177878,0.03747864,0.078108154,0.10030398,-0.48295355,-0.16650024,-0.026598835,0.14211851,-0.03264387,1.4720134,-0.06380657,-0.13441259,-0.25555596,0.046575613,0.02710382,0.07605015,0.075910084,-0.04865659,-0.0107156485,0.06253983,-0.10023774,-0.0076097418,0.13850509,-0.09984295,-0.04846461,0.22144194,0.14930499,0.09753224,0.066150725
Haoyu_Wang_0001,0.20856239,-0.01949385,0.1537073,0.064348824,0.065778546,0.032037955,-0.09729272,-0.25475937,0.115183696,0.1462262,0.08333284,0.06694471,-0.009328179,-0.032472875,0.10209911,0.0841032,-0.047918763,0.028119313,-0.022002893,-0.15784162,0.07824829,-0.088961296,0.062423624,0.07218364,0.095991865,-0.5118883,-0.1678636,-0.08211559,0.12110111,-0.08702507,1.4644486,-0.0009826813,-0.13955711,-0.20218852,0.0047515547,0.005814594,0.05083111,0.015127955,-0.07682844,-0.10209642,0.07379558,-0.10318795,0.009938136,0.13874717,-0.017268859,0.0033183123,0.11334884,0.15480034,0.09931315,0.06831909
Hongwei_Jia,0.08263416,0.025964445,0.06841543,0.020140799,0.05300823,0.08519917,0.0018628973,-0.08980818,0.015780536,-0.00013431173,0.13294849,0.08267201,-0.097729474,0.07007999,-0.0037713896,0.071953475,-0.009523147,0.02825662,-0.02213516,-0.13982803,0.023224512,-0.1504127,-0.013530819,0.030895796,0.014142568,-0.3772597,-0.013059006,-0.0022433621,0.12602766,0.05481737,0.91988975,-0.031911947,-0.11402838,-0.19166218,0.0066295327,0.0070112934,0.06357962,0.067395836,0.021154385,0.06323176,0.017776845,-0.005972058,-0.09506543,0.124866314,-0.103460796,-0.07505505,0.090099365,0.08606462,0.055492446,0.09564877
Meina_Song,0.16974586,0.041847393,0.07320364,0.019827956,0.060851697,0.049110085,-0.009364161,-0.17787123,0.0746908,0.07501177,0.114881836,0.06517387,-0.03527803,0.05606237,0.015501653,0.07697877,-0.020146694,0.015130585,0.008976621,-0.18830407,0.0709905,-0.11915533,0.038094446,0.06982266,0.05879615,-0.43191117,-0.14572757,-0.036948737,0.116903685,-0.01675918,1.3284179,-0.014342059,-0.12094928,-0.23331513,0.016127966,0.008930993,0.04429271,0.07184016,-0.04309045,-0.032049816,0.056826334,-0.10787187,-0.0040338226,0.15187158,-0.08144042,-0.038332477,0.16730624,0.14436854,0.06272539,0.085873
Lei_Feng_0001,0.16142167,0.03733648,0.12755287,0.047379114,-0.012934241,0.014106269,0.016348688,-0.16566971,0.09961558,0.08826037,0.12175036,0.040908262,-0.029380338,0.062047094,-0.045852832,0.07214046,-0.020793986,0.06803038,-0.014606636,-0.12890694,0.077222124,-0.119596854,0.0049059396,0.08702397,0.031259697,-0.3259271,-0.08424456,-0.019282978,0.14483254,0.017658915,1.1058232,0.02363765,-0.09922086,-0.14705007,-0.010747764,0.0069994912,0.031919032,0.026397927,-0.033443853,0.01175232,0.08313915,-0.08816015,-0.018889358,0.112279885,-0.096480004,-0.06249019,0.14063981,0.09625346,0.08002517,0.084169716
Yuchao_Zhang,0.0,0.0,0.0,0.0,0.0,0.0,0.0,0.0,0.0,0.0,0.0,0.0,0.0,0.0,0.0,0.0,0.0,0.0,0.0,0.0,0.0,0.0,0.0,0.0,0.0,0.0,0.0,0.0,0.0,0.0,0.0,0.0,0.0,0.0,0.0,0.0,0.0,0.0,0.0,0.0,0.0,0.0,0.0,0.0,0.0,0.0,0.0,0.0,0.0,0.0
Zhengqiu_Yang,0.18999246,0.018666942,0.1317049,0.04013089,0.02771294,0.044950962,-0.048997868,-0.24915385,0.11024903,0.088857725,0.1554109,0.061385002,-0.051208436,0.06619493,-0.002472306,0.11007355,-0.00037525967,0.019786922,-0.015460687,-0.26931524,0.07932841,-0.18252154,0.014356668,0.045922995,0.08764436,-0.5387114,-0.18837652,-0.012122984,0.17173254,0.009684379,1.5799764,-0.054543648,-0.1694806,-0.27635202,-0.0027895153,0.020431895,0.037297633,0.10912796,-0.013830132,-0.015736047,0.074101515,-0.09357347,-0.022863163,0.17324424,-0.07252528,-0.054620426,0.20365454,0.14093812,0.110654935,0.0617014
Xiangyang_Gong,0.17368223,0.035841502,0.09532103,0.045261323,-0.0033062783,0.00563747,-0.020976458,-0.18158904,0.09501079,0.07521728,0.10043118,0.071462765,-0.060602006,0.050377302,-0.005366099,0.08530613,-0.0050523793,0.021906316,0.002916848,-0.17368446,0.093057215,-0.10967914,0.0012442602,0.08385377,0.04036345,-0.41924742,-0.097877756,-0.031560406,0.13265352,-0.00013263462,1.2916512,0.0075599332,-0.12387976,-0.20597042,-0.028239623,0.016505126,0.037875783,0.03542277,-0.064146265,-0.007573304,0.08642019,-0.07678568,-0.013237676,0.14788924,-0.10250494,-0.045700174,0.13227394,0.111530684,0.065701865,0.070866585
Hua_Zou,0.0,0.0,0.0,0.0,0.0,0.0,0.0,0.0,0.0,0.0,0.0,0.0,0.0,0.0,0.0,0.0,0.0,0.0,0.0,0.0,0.0,0.0,0.0,0.0,0.0,0.0,0.0,0.0,0.0,0.0,0.0,0.0,0.0,0.0,0.0,0.0,0.0,0.0,0.0,0.0,0.0,0.0,0.0,0.0,0.0,0.0,0.0,0.0,0.0,0.0
Danfeng_Yan,0.1146548,0.085682,0.018924002,0.036308307,0.10671301,-0.02458585,-0.1885425,-0.3004024,-0.1065356,0.0842915,-0.145437,0.033584002,-0.02377,0.0781057,0.042632997,0.21056418,0.13583,0.09962409,0.1965925,-0.034894995,0.1386157,0.023102704,-0.1353789,0.18791603,0.0843699,-0.375981,-0.0925116,-0.019156996,0.072929,-0.016281996,1.040026,0.101518,0.054138303,-0.316554,-0.0326687,-0.048321,-0.1505482,0.11602962,-0.120854996,-0.1245258,-0.1372797,-0.0699457,0.0061758994,0.26322,0.0276445,0.046250902,0.052657507,0.23158081,0.075556,0.314339
Xiuqin_Lin,0.19137019,0.036268067,0.046487253,0.039372742,0.07041957,0.0669386,-0.029146856,-0.23508109,0.04819412,0.1010546,0.1194458,0.06393182,-0.039486405,0.04534541,0.05958742,0.060414303,-0.045323145,0.0032329727,0.009552669,-0.18187785,0.0804494,-0.15733887,0.052219868,0.13600333,0.08433022,-0.45741022,-0.22930545,-0.06659054,0.09810134,-0.021953786,1.4052197,-0.05433793,-0.1597942,-0.24138533,-0.03107518,-0.0014259741,0.04359369,0.056109548,-0.058923315,-0.010579941,0.10102212,-0.107358426,-0.08189778,0.18234368,-0.043241728,-0.052507836,0.18753463,0.15086754,0.0957163,0.07907791
Quan_Yuan_0004,0.1766348,0.037290145,0.096851826,0.018687738,0.0086206775,0.011531209,-0.0015089709,-0.13869344,0.09714269,0.08052912,0.09667399,0.045845903,-0.07385217,0.04909658,-0.005635374,0.07319799,0.036777973,0.005934072,-0.03430608,-0.1801461,0.08058468,-0.115117416,-0.017098054,0.087921426,0.06169596,-0.40069214,-0.11071632,-0.031026758,0.17652735,-0.008801294,1.2521641,0.029806059,-0.103991255,-0.22501738,-0.009388874,0.001343238,0.029328387,0.025965478,-0.03666364,0.007729946,0.037647147,-0.10441633,0.028382065,0.12831643,-0.08630371,-0.0551712,0.16387579,0.10212063,0.09544875,0.08121553
MeiYu_Liang,0.18029293,0.088113636,0.0052327877,0.0152958715,0.09477255,0.082225464,-0.05242198,-0.20436513,0.07296943,0.07519745,0.085414365,0.058692694,-0.029169427,0.06000362,0.027254187,0.052422,-0.017641885,-0.019053448,-0.0056335493,-0.19754,0.0906191,-0.07985542,0.040465064,0.06912491,0.13207197,-0.48098952,-0.2041305,-0.042156056,0.10902893,-0.027880814,1.4255791,-0.06552264,-0.12605533,-0.33196846,-0.021773633,0.02902489,-0.0004644147,0.097222604,-0.079848506,-0.023264967,0.07057158,-0.11744542,-0.018463522,0.18127543,-0.016027866,-0.05355313,0.21742147,0.17950743,0.056111928,0.06418764
Jingyu_Wang_0001,0.17833285,0.026651759,0.08138509,0.03786431,0.03054983,0.027832985,-0.0044093532,-0.16379122,0.09034877,0.0716044,0.10253949,0.062720835,-0.037752222,0.061986335,-0.004948937,0.09267155,-0.0011128677,0.009603298,0.0048334743,-0.18487786,0.07492186,-0.10917399,0.023032898,0.08108516,0.06832282,-0.3847626,-0.11686058,-0.03107126,0.15541609,-0.025195627,1.2637215,0.013815211,-0.121602684,-0.22183591,-0.0067718183,0.03041104,0.030683374,0.044078793,-0.0682056,-0.01669518,0.055964112,-0.10048758,-0.0058330153,0.15525857,-0.09487442,-0.03847042,0.16997574,0.11474048,0.057671204,0.059623584
Xingquan_Zuo,0.17944711,0.03809921,0.019761343,0.004775849,0.033780705,0.03049221,-0.00909812,-0.14574379,0.04798049,0.05158435,0.07534973,0.045048855,-0.08313758,0.049485575,0.03666102,0.04515859,0.027582906,0.012097396,-0.031515628,-0.18741548,0.034255605,-0.12562416,-0.0015258918,0.0746167,0.051162217,-0.39919472,-0.13022755,-0.00020160021,0.13369334,0.019574177,1.2517662,-0.03088625,-0.1193611,-0.16121167,0.036308523,0.001639845,0.047745757,0.084961675,-0.029470205,0.0005710562,0.021921119,-0.08049819,0.0059973616,0.13521251,-0.08664567,-0.06651804,0.17532928,0.10546114,0.08669872,0.0986618
Lanlan_Rui,0.16316384,0.027661404,0.1001054,0.04627232,0.019966317,0.03412727,-0.004370337,-0.13576761,0.07875873,0.073889345,0.102197275,0.05424405,-0.0669875,0.04864011,0.0024897063,0.079750076,0.0021186764,0.010161232,0.0066819717,-0.14951351,0.075328365,-0.13372533,0.0037509091,0.08605472,0.04159512,-0.3578746,-0.10260713,-0.04141467,0.13361382,-0.0031016006,1.1513879,0.004347246,-0.106801316,-0.17093123,-0.003477356,8.8056186e-05,0.03617297,0.05317717,-0.025244769,-0.010353681,0.05779859,-0.10048777,-0.020964112,0.12368724,-0.09163196,-0.03671958,0.1415983,0.101281166,0.07448994,0.074206695
Lejian_Zhang,0.097533,0.01906072,0.08590672,0.04858054,0.028969992,0.010724795,-0.02563637,-0.14240058,0.04224944,0.039345633,0.06410875,0.035439484,-0.03626163,0.07371377,-0.029882312,0.064956866,-0.039260633,0.05548685,0.0074355705,-0.1170403,0.08495853,-0.053498127,0.005580914,0.043114163,0.033306852,-0.24790592,-0.062148355,-0.023162702,0.0803285,-0.036278438,0.85239637,0.02979441,-0.06541709,-0.11149229,-0.015954861,0.031392086,0.025583286,0.031007241,-0.055428624,-0.015130127,0.048938826,-0.06542191,-0.03689181,0.07275353,-0.06177189,-0.011492776,0.082478255,0.052080058,0.012493181,0.04443748
Zhongbao_Zhang,0.16136172,0.06950156,0.07531866,0.026577774,0.06286644,0.04607126,-0.013250842,-0.20398761,0.061938368,0.07405593,0.095292404,0.051057283,-0.07206091,0.037177674,0.030071184,0.050428197,-0.0041909725,0.025920132,0.02103094,-0.14823036,0.0787414,-0.105022594,0.017750036,0.13174754,0.06208898,-0.35423753,-0.13374743,-0.051839713,0.09529863,-0.003784803,1.1727546,-0.00083675835,-0.09455843,-0.22544038,-0.028726067,0.0049077002,0.010638804,0.05555315,-0.059779536,-0.008504159,0.069155514,-0.090707526,-0.038554367,0.1447425,-0.10543698,-0.054821398,0.15672098,0.0913453,0.066826686,0.07611963
Xiaoru_Wang,0.21921082,0.07459525,-0.032704335,0.031299282,0.007141077,0.14199045,0.07843691,-0.19191691,0.025756797,0.16752338,0.13422538,0.058045894,-0.04165152,0.09068322,0.03057447,0.06601833,0.08386842,0.060875535,-0.08358979,-0.14195505,0.08408499,-0.13193043,0.06057478,0.04080898,0.048679687,-0.4373164,-0.20070638,-0.03543692,0.09036927,0.01683891,1.4217781,-0.106540136,-0.20021117,-0.21500303,0.027487721,0.024061779,0.078235164,0.09029603,-0.040685914,-0.012019314,0.03947618,-0.08073621,-0.043371994,0.09666677,-0.0855739,-0.029559717,0.19239363,0.14236335,0.030913394,0.049783103
Zhonghong_Ou,0.17068136,0.04747116,0.11659714,0.049880367,0.027679866,0.031466685,-0.03243533,-0.18054697,0.09822503,0.1062065,0.12098271,0.04029586,-0.04044877,0.053021155,0.012781404,0.09360641,-0.029334113,0.02397694,-0.014537231,-0.20841339,0.10404139,-0.1019269,0.020825446,0.060200978,0.05917125,-0.4466127,-0.13616246,-0.039589584,0.13204388,-0.01706222,1.4125853,0.017353188,-0.10051552,-0.22586396,-0.009493015,0.009183955,0.04088089,0.059273385,-0.0379004,-0.039744288,0.07153015,-0.10445099,-0.0026355458,0.14013892,-0.07408328,-0.017341135,0.14830059,0.1161638,0.046073087,0.058628928
Wen-Jun_Hou,0.2013659,0.068150535,0.060379926,0.017934736,0.11721254,0.053559814,-0.011510476,-0.21176843,0.06661987,0.09779399,0.15358432,0.07334735,-0.039607566,0.054056816,0.00545115,0.10554508,0.0020374635,0.021398833,0.0022532796,-0.24534225,0.07941138,-0.10399142,0.016878745,0.067144275,0.09397445,-0.48580295,-0.17348474,-0.066508874,0.094311506,-0.040757798,1.4921464,-0.003956599,-0.14407748,-0.3155292,0.02717905,0.04952685,0.055376656,0.1046601,-0.079424046,-0.03159914,0.071470216,-0.10106348,-0.012128079,0.13362597,-0.027467212,-0.024131747,0.19327687,0.11040152,0.049430277,0.055275343
Lirong_Qiu,0.12966758,0.04053965,0.0017273301,0.016186958,0.074032776,0.033805493,0.0056894924,-0.18173331,0.038264215,0.10024568,0.07360394,0.05336878,-0.035844415,0.050134256,0.009815149,0.06867066,0.0071891025,-0.017435098,0.06824013,-0.15912652,0.08184248,-0.07333365,0.028541973,0.068901815,0.11235774,-0.40073347,-0.15946616,-0.031492922,0.11891186,-0.032038264,1.183465,-0.057235114,-0.15712793,-0.21510494,-0.033733953,-0.029485835,-0.0061865533,0.07729666,-0.08279118,0.01569683,0.07002154,-0.12288291,0.019175492,0.14098667,-0.039363243,-0.008116086,0.1639168,0.18762237,0.045092456,0.042286336
Qibo_Sun,0.16018155,0.019433329,0.059855696,0.0034035062,0.025577176,0.0019453958,-0.017860435,-0.13804519,0.08252161,0.079658575,0.078330696,0.071118504,-0.028364291,0.04260281,0.027485449,0.07073943,0.017565768,-0.009528893,-0.009199518,-0.15973403,0.05694504,-0.10407287,0.02056681,0.051736634,0.04710858,-0.37763128,-0.13094468,-0.041370243,0.11224763,0.010204853,1.1260759,0.0050488953,-0.11733953,-0.19066161,-0.0062109367,-0.00766177,0.02636703,0.0447149,-0.046262003,-0.0445202,0.032024108,-0.08464845,0.009198532,0.1458377,-0.06403804,-0.045653634,0.1283658,0.12800056,0.06927627,0.09258862
Hongbo_Wang_0001,0.16973703,0.03970935,0.12779953,0.03884165,-0.012356339,0.00962088,-0.04313221,-0.20598271,0.09818576,0.10587929,0.10079317,0.065045714,-0.036098097,0.050891645,0.043777354,0.072507024,-0.05287242,0.040500406,0.014965617,-0.17987879,0.09449856,-0.10336001,0.0077784476,0.09968852,0.0884184,-0.39795905,-0.124049135,-0.044405077,0.15476245,-0.0203392,1.3119668,0.011030465,-0.08817303,-0.21643336,-0.018552376,0.038340084,0.059114054,0.026114544,-0.035860702,-0.009235348,0.08379842,-0.0927097,-0.016843777,0.181983,-0.09120905,-0.05578663,0.17082402,0.11281943,0.07224946,0.085406415
Ying_Wang_0002,0.16666642,0.049944267,0.12540814,0.059054643,-0.002609325,0.040055484,0.029569954,-0.18389516,0.09090442,0.09539919,0.12954669,0.06704727,-0.0474538,0.06387772,-0.027983943,0.076707475,-0.024611128,0.04477082,-0.022031628,-0.15661088,0.08076271,-0.14629099,0.010002512,0.08255874,0.035072494,-0.39767808,-0.10023565,-0.031921912,0.14321321,0.00878287,1.2946819,0.009793301,-0.119182706,-0.17724903,-0.00070283253,0.005073362,0.06591924,0.03405427,-0.051972907,-0.009605735,0.08616722,-0.09425512,-0.030376773,0.15225874,-0.13820665,-0.07406413,0.16624942,0.120332055,0.09284859,0.08934802
Mengshi_Qi,0.16632451,0.07620771,-0.00827644,0.037777945,0.11053565,0.08208242,0.016210996,-0.18146618,0.0579872,0.09359281,0.12518783,0.046999898,-0.06494917,0.09161896,0.022444613,0.044748392,0.007453988,0.0101371175,-0.032493476,-0.20404778,0.053252134,-0.045646053,0.06877554,0.096919425,0.096165575,-0.41290295,-0.2502965,-0.03476362,0.121967755,-0.04175162,1.4079276,-0.051209338,-0.094630495,-0.3273413,0.01041823,0.046989433,0.033772483,0.053868372,-0.10556695,-0.04131518,0.049250554,-0.12805134,0.007318605,0.11051245,-0.060384527,-0.028107949,0.2099705,0.113957554,0.032439295,0.077858895
Xuesong_Qiu_0001,0.17636319,0.026158946,0.10799559,0.048410207,0.0069147884,0.03306756,0.00064235827,-0.15869589,0.08676659,0.078981966,0.10937479,0.046302155,-0.056788098,0.058848333,-0.011919812,0.086549245,-0.0035365259,0.026528958,-0.008790164,-0.14746389,0.0753873,-0.122555025,0.0070684683,0.08098647,0.03682096,-0.36412153,-0.10819736,-0.025770597,0.13386533,0.0023627402,1.1700021,-0.0012557172,-0.10851183,-0.18055,-0.005698663,0.0020966476,0.03355546,0.04010971,-0.03215955,-0.008046071,0.060615916,-0.087441236,-0.017300868,0.12390056,-0.09476116,-0.051659185,0.14929852,0.11044663,0.073269494,0.078359686
Hong_Luo_0001,0.17763223,0.019212099,0.091750845,0.020783242,0.035912417,0.034533076,-0.026182981,-0.15632986,0.09278691,0.099502474,0.093377486,0.051957987,-0.033722777,0.041095518,0.024196012,0.08526516,0.0016894961,-0.0028630323,-0.005655756,-0.17640497,0.089058384,-0.123580016,0.02156076,0.056712046,0.046424575,-0.40401128,-0.1368703,-0.03984101,0.12597214,-0.028879417,1.2609798,-0.021178363,-0.12721387,-0.21356377,0.010937777,0.03148924,0.041502964,0.05761974,-0.026277712,-0.048100322,0.06245016,-0.09734178,-0.023164315,0.13704896,-0.07203381,-0.03326385,0.17333846,0.12860385,0.052701205,0.056303848
Xianlin_Zhang,0.23983939,0.16185026,0.017594349,-0.067571834,-0.074219756,0.18284473,0.09445997,-0.17086785,0.21153793,0.0907837,0.24368642,-0.12838627,0.16880293,0.056311943,-0.06258172,0.23035926,-0.2419007,-0.031712644,-0.06777661,-0.122990504,0.01689695,-0.008983892,0.054028124,-0.097783506,-0.0055512013,-0.4045627,-0.18501732,0.030417994,0.19899234,0.049175452,1.1998346,0.030189553,-0.19994086,-0.32866004,-0.06564729,0.09495442,0.141553,0.26129496,0.2550225,0.032633495,0.048537225,-0.009756914,0.03774492,0.19840473,0.08473792,0.04897903,0.23576935,-0.12461043,-0.023271509,0.034193404
Huiyuan_Fu,0.19612335,0.043750886,0.02108708,-0.0075642695,0.080294244,0.06922313,0.00377462,-0.1541427,0.08012362,0.08746613,0.0962796,0.023261495,-0.029169641,0.074953414,0.0080007,0.059666075,0.032234237,-0.0015430133,-0.08588705,-0.2678238,0.04973422,-0.06954071,0.04051907,0.04864063,0.11128326,-0.49303463,-0.20025863,0.015629325,0.19084258,-0.0405982,1.4826064,-0.0074020308,-0.13403596,-0.31125838,0.014721703,0.054734413,0.055590365,0.07569783,-0.087525636,-0.016795052,0.030526632,-0.052899946,0.0022485417,0.12514149,-0.07099422,-0.044867266,0.19552869,0.09370715,0.059193417,0.07493648
Feifei_Kou,0.1691475,0.0951183,0.032609746,0.031404946,0.09256324,0.09338039,-0.06239106,-0.22508028,0.072686166,0.05903166,0.08464322,0.05099082,-0.044227656,0.049491193,0.04242366,0.04869182,-0.034244817,-0.038507223,0.019280843,-0.17861938,0.11179227,-0.1092185,0.04922655,0.0878704,0.12065081,-0.45212668,-0.19698279,-0.056638293,0.08520705,-0.00031312197,1.3969526,-0.055685654,-0.09099804,-0.30980957,-0.051231798,-0.0035522138,-0.023082396,0.091700524,-0.08198428,-0.021694815,0.06894392,-0.1291176,-0.019009093,0.18276049,-0.04309507,-0.05380181,0.19209729,0.18576711,0.064515926,0.05024183
Budan_Wu,0.17296302,0.00956966,0.054343674,0.022173256,0.010086381,0.032105967,-0.0038226552,-0.21846549,0.08999468,0.09292042,0.10886414,0.07767912,-0.052475225,0.064125404,0.0046545034,0.06922916,0.010679344,0.023412254,0.089300185,-0.19301343,0.07900528,-0.12407245,-0.0044219233,0.040803794,0.06852737,-0.42003375,-0.10924269,-0.026116684,0.1268423,0.0040383954,1.325596,-0.059403233,-0.19245794,-0.20540078,-0.02573159,0.01187849,0.02138415,0.09017449,-0.039966363,-0.0154298395,0.059160154,-0.11636657,0.0108570615,0.12170795,-0.078873836,-0.06425956,0.17036146,0.13908483,0.07910334,0.07356959
Jinpeng_Chen,0.14303477,0.043318152,0.13735954,-0.026434397,0.10732613,0.03999966,0.038628686,-0.12897094,0.033308197,0.07676049,0.17523164,-0.0017831499,-0.0718464,-0.058012646,0.070555724,0.070117526,-0.05365041,-0.011708465,-0.19140208,-0.22722067,0.015008145,-0.09733496,0.1374198,-0.0005731935,0.062402263,-0.6600556,-0.10175777,-0.10888661,0.13164009,-0.013140582,1.8677353,0.11035478,-0.20405829,-0.24879247,0.023569936,-0.036102656,0.1582669,0.08848542,0.08594262,-0.055999737,0.017388748,-0.029648095,-0.038488854,0.06257326,-0.14084654,0.038484603,0.1330237,-0.06376499,0.042725783,0.12841469
Jiapeng_Xiu,0.20579578,0.018956028,0.15329723,0.04945365,0.03994254,0.052229248,-0.06687767,-0.27783307,0.109243736,0.11224717,0.16979066,0.056463804,-0.04332943,0.05963276,-0.00041291892,0.10254234,-0.0077369674,0.034087043,-0.027015617,-0.27888334,0.09096851,-0.18521498,0.023168065,0.03235413,0.0996485,-0.528123,-0.21314803,-0.016471494,0.17630821,0.004632686,1.6256399,-0.05619998,-0.15188918,-0.27829015,-0.003417759,0.0057874024,0.01402488,0.11111144,0.0046567977,-0.011882788,0.07110208,-0.0900908,-0.030549001,0.14932339,-0.06781611,-0.07693419,0.21889767,0.14335589,0.10762936,0.084246576
Kai_Shuang,0.16842508,-0.0016308844,0.09774329,-0.03720309,0.002402997,-0.17135435,-0.0065735998,-0.16540489,0.20968607,0.035225663,0.12723203,0.16112356,0.007411425,0.11505728,-0.015770957,0.103244275,0.04136966,-0.07266737,0.2166584,-0.08333096,0.05979214,-0.022882232,0.076907866,0.16322157,0.0722234,-0.31297863,-0.18152232,-0.1418178,0.084209554,-0.067165956,1.1367706,0.04746886,-0.17727594,-0.32401922,-0.092355914,0.07772516,0.09470276,-0.072157174,-0.12081101,-0.022413734,0.08429469,-0.20915672,0.095510565,0.14782198,-0.0914969,-0.026446005,0.13064857,0.14564966,0.053068064,0.086172216
Yonghao_Gu,0.1952588,0.031653333,0.13250276,0.093048826,0.07358995,0.062293954,0.021058325,-0.17679657,0.09951796,0.06414929,0.14248107,0.051235013,-0.0469455,0.046030737,0.013608492,0.09468213,-0.04076326,0.0014402852,-0.03060393,-0.15104307,0.024019007,-0.14198706,0.036436897,0.11539702,0.04996115,-0.39968196,-0.10028988,-0.053461462,0.13734671,-0.033151567,1.1747808,-0.024930846,-0.0904536,-0.25336197,0.0010953089,0.016384948,0.033010755,0.043943126,-0.06145979,-0.026441637,0.06733075,-0.083083995,-0.00096246885,0.1728323,-0.023092393,-0.060916647,0.18221514,0.08888911,0.0895277,0.065130465
Xiaolong_Zheng_0002,0.18949394,0.030346766,0.111774236,0.04149843,0.008189617,0.02269946,-0.014097643,-0.1666922,0.109888315,0.097405635,0.13191189,0.05759734,-0.03744346,0.05440296,-0.03159438,0.119138815,-0.021882324,0.015577912,-0.028620245,-0.19123651,0.08807851,-0.09254488,0.019976314,0.0736901,0.0770043,-0.44305965,-0.13630204,-0.014452105,0.16978571,-0.040881276,1.3681146,0.055565126,-0.09743291,-0.21068865,-0.028728226,-0.007072284,0.04835577,0.021206364,-0.065845884,-0.0063517136,0.07566701,-0.093363695,0.00046410772,0.14810987,-0.09730677,-0.04212262,0.14240855,0.110386275,0.060076896,0.0649859
Shujie_Yang,0.10775641,0.01252933,0.040955603,0.025444496,0.009408023,0.016080268,0.022375619,-0.09135379,0.054147787,0.058548164,0.058129143,0.044363227,-0.029142968,0.021594455,0.0007005667,0.043219984,0.008635407,0.010418285,0.009898053,-0.09050336,0.036784634,-0.07669658,0.0078306515,0.04885654,0.034920838,-0.20516853,-0.058714114,-0.016565248,0.076212205,0.00031526628,0.66874915,-0.005681336,-0.066530846,-0.115334556,0.00012568593,0.010019363,0.031160679,0.02844426,-0.030919716,-0.0005175926,0.036408953,-0.04966016,-0.02054543,0.08539414,-0.050297916,-0.02673199,0.08889584,0.066860355,0.05344979,0.045183253
Xiao-hong_Huang,0.2686004,-0.09323146,0.07475162,-0.041299134,0.04931802,0.088251494,-0.0014318541,-0.238663,0.0589665,0.09408931,0.10959357,0.049606245,-0.08242337,0.008730804,0.07127201,0.092578836,0.0712449,0.09891999,-0.10934945,-0.41409189,0.03296003,-0.22366208,0.023671687,0.03801088,0.14071675,-0.53678936,-0.20013614,0.034534868,0.23621303,0.11342746,1.584441,-0.14076103,-0.21970272,-0.24567333,0.13708873,0.032882106,0.049580026,0.20873979,-0.07708335,-0.03587547,0.045237165,-0.038614366,-0.09825677,0.18937713,-0.04133506,-0.07185055,0.32717302,0.15051475,0.070223995,0.11912475
Zhipeng_Gao,0.204074,0.01672722,0.11048679,0.05307938,0.04515711,0.048613753,-0.004112152,-0.19005248,0.09509779,0.08090797,0.11691832,0.06330753,-0.046582717,0.050760396,0.0073320516,0.09007917,-0.0053162933,0.018416692,-0.0029047797,-0.19544162,0.07121534,-0.14729226,0.022062747,0.093381874,0.07016111,-0.4264276,-0.14007756,-0.029601645,0.14704394,-0.03316683,1.3473898,-0.036091875,-0.1368675,-0.232427,0.015326804,0.006551997,0.046924237,0.055824753,-0.039291132,-0.023077149,0.07617778,-0.11294502,-0.009309569,0.15746999,-0.099481285,-0.043601982,0.20159644,0.15566967,0.08942897,0.08748741
Yuanyuan_Zuo,0.099630564,0.007697756,0.031043565,0.029006094,0.077145584,0.050441455,0.024504984,-0.09188312,0.035884995,-0.013538413,0.05063033,0.009260422,-0.01087306,0.0284366,-0.021411369,0.04135611,0.0064388183,0.006552269,-0.02078737,-0.13992158,-0.0040763835,-0.09061626,0.06470946,0.03023442,0.034507822,-0.25320697,-0.08438835,0.017308384,0.06658415,-0.027530842,0.73691654,-0.015910229,-0.058983225,-0.15089937,0.032710332,0.023055425,0.018334376,0.06426025,-0.035779823,0.013963808,0.011418618,-0.008772614,-0.045064073,0.09515194,-0.033033192,-0.040599894,0.10961159,0.054421995,0.01815569,0.034959096
